<?xml version="1.0"?>
<opencv_storage>
<cascade>
  <stageType>BOOST</stageType>
  <featureType>LBP</featureType>
  <height>25</height>
  <width>25</width>
  <stageParams>
    <boostType>GAB</boostType>
    <minHitRate>9.9900001287460327e-01</minHitRate>
    <maxFalseAlarm>5.0000000000000000e-01</maxFalseAlarm>
    <weightTrimRate>9.4999999999999996e-01</weightTrimRate>
    <maxDepth>1</maxDepth>
    <maxWeakCount>100</maxWeakCount></stageParams>
  <featureParams>
    <maxCatCount>256</maxCatCount>
    <featSize>1</featSize></featureParams>
  <stageNum>50</stageNum>
  <stages>
    <!-- stage 0 -->
    <_>
      <maxWeakCount>16</maxWeakCount>
      <stageThreshold>-9.7971802949905396e-01</stageThreshold>
      <weakClassifiers>
        <_>
          <internalNodes>
            0 -1 291 -1611325987 2038388877 599734621 1494059273
            522981373 998578100 642088169 52428800</internalNodes>
          <leafValues>
            -1.3076199591159821e-01 6.3469761610031128e-01</leafValues></_>
        <_>
          <internalNodes>
            0 -1 268 650314444 -1082163609 796560057 -13025537 30673304
            -1334020435 74977019 -1195406371</internalNodes>
          <leafValues>
            -2.7996861934661865e-01 4.5360103249549866e-01</leafValues></_>
        <_>
          <internalNodes>
            0 -1 190 -403837667 1605717064 -16865645 1768228720
            -570454836 -486996243 -1935598289 -269549547</internalNodes>
          <leafValues>
            -2.5792309641838074e-01 4.5933723449707031e-01</leafValues></_>
        <_>
          <internalNodes>
            0 -1 562 605126864 1896486696 90619925 1604096493 940085673
            1258295321 50399454 704316183</internalNodes>
          <leafValues>
            -3.4630575776100159e-01 3.5739284753799438e-01</leafValues></_>
        <_>
          <internalNodes>
            0 -1 341 -966395499 1409260911 1602055691 1898532455
            2139540971 762617638 -121528946 -1086111354</internalNodes>
          <leafValues>
            -2.7674746513366699e-01 4.8323574662208557e-01</leafValues></_>
        <_>
          <internalNodes>
            0 -1 46 -74653198 -555581769 1073265795 2028236124
            1643408605 -573192628 -1384751286 1584309258</internalNodes>
          <leafValues>
            -3.4332963824272156e-01 3.8602522015571594e-01</leafValues></_>
        <_>
          <internalNodes>
            0 -1 663 309483742 2136689680 791812163 -544373429
            -1638870278 -833724808 1536327674 -1886545425</internalNodes>
          <leafValues>
            -2.4865604937076569e-01 5.1490718126296997e-01</leafValues></_>
        <_>
          <internalNodes>
            0 -1 435 -380892291 -267942449 -536866781 -86548444
            -154607040 -1154678782 -1016664881 405614656</internalNodes>
          <leafValues>
            -3.5612210631370544e-01 3.6160099506378174e-01</leafValues></_>
        <_>
          <internalNodes>
            0 -1 457 -822027842 -1151908233 1064778134 -1250423023
            1836121056 -966332400 2131371419 -382384382</internalNodes>
          <leafValues>
            -2.7811035513877869e-01 4.5205855369567871e-01</leafValues></_>
        <_>
          <internalNodes>
            0 -1 696 107513979 -1713423140 1960706044 -1990411243
            -2013334344 -207866372 -1881203533 975257048</internalNodes>
          <leafValues>
            -3.2529932260513306e-01 4.1071072220802307e-01</leafValues></_>
        <_>
          <internalNodes>
            0 -1 648 -1764201273 -152388132 -1162462699 1940117347
            2113767172 -1351811131 -1276844307 -376652847</internalNodes>
          <leafValues>
            -2.5893312692642212e-01 5.0044918060302734e-01</leafValues></_>
        <_>
          <internalNodes>
            0 -1 399 -647416871 2015039501 2122065577 363015577
            -270393633 -1355202653 1432342029 2099208371</internalNodes>
          <leafValues>
            -3.1272155046463013e-01 4.3684902787208557e-01</leafValues></_>
        <_>
          <internalNodes>
            0 -1 556 -802991206 -38677848 -50375183 -39776975
            -1262647041 -1146831920 -2080325670 -17065456</internalNodes>
          <leafValues>
            -2.0169059932231903e-01 6.0690915584564209e-01</leafValues></_>
        <_>
          <internalNodes>
            0 -1 544 -107704117 1419542429 2147419061 -570786055
            -1617495140 -1627496451 -1090848634 401966232</internalNodes>
          <leafValues>
            -3.3485844731330872e-01 4.0748479962348938e-01</leafValues></_>
        <_>
          <internalNodes>
            0 -1 539 -1490500327 1532624249 -1363351771 758556720
            1043657757 1862025077 1173849938 -1443156089</internalNodes>
          <leafValues>
            -3.0051952600479126e-01 4.5283973217010498e-01</leafValues></_>
        <_>
          <internalNodes>
            0 -1 410 -593984139 -752774511 1091862528 -1274736499
            873114096 2056290345 1267218459 206201493</internalNodes>
          <leafValues>
            -4.0963596105575562e-01 3.5123458504676819e-01</leafValues></_></weakClassifiers></_>
    <!-- stage 1 -->
    <_>
      <maxWeakCount>12</maxWeakCount>
      <stageThreshold>-1.2221289873123169e+00</stageThreshold>
      <weakClassifiers>
        <_>
          <internalNodes>
            0 -1 545 555746705 1068969603 1073162167 958605105 891956873
            -1405086117 13642687 186780178</internalNodes>
          <leafValues>
            -2.4678362905979156e-01 6.0216802358627319e-01</leafValues></_>
        <_>
          <internalNodes>
            0 -1 505 1562415232 -145350532 2069901789 -640301933
            1861492872 -856415980 253268911 -1155923680</internalNodes>
          <leafValues>
            -2.9826933145523071e-01 5.2504229545593262e-01</leafValues></_>
        <_>
          <internalNodes>
            0 -1 292 -150925065 -1622860719 1764994407 -787669619
            1361317023 -1183828111 -1943186003 152269057</internalNodes>
          <leafValues>
            -3.3631032705307007e-01 4.5746433734893799e-01</leafValues></_>
        <_>
          <internalNodes>
            0 -1 532 -459892488 -1315896832 645801781 -215480992
            461429432 -1611274884 -1432083288 -1165947904</internalNodes>
          <leafValues>
            -3.1147146224975586e-01 5.1247555017471313e-01</leafValues></_>
        <_>
          <internalNodes>
            0 -1 541 117601296 -1324346980 -989474697 -712801275
            145359272 -352108248 136353944 -1700790252</internalNodes>
          <leafValues>
            -4.1030827164649963e-01 3.8118606805801392e-01</leafValues></_>
        <_>
          <internalNodes>
            0 -1 599 -213347842 -664588512 -2117860445 -551297215
            -211500917 -63393128 -1186968149 -573946615</internalNodes>
          <leafValues>
            -2.7508240938186646e-01 5.9629428386688232e-01</leafValues></_>
        <_>
          <internalNodes>
            0 -1 6 -738144396 -1819173150 1088307945 -1755505897
            -354644738 -271839647 -588290050 -57735573</internalNodes>
          <leafValues>
            -2.5115710496902466e-01 5.7832354307174683e-01</leafValues></_>
        <_>
          <internalNodes>
            0 -1 416 -1045346089 312172537 -4490701 1093756792
            -2017998342 -652183932 -1344055589 -1148879872</internalNodes>
          <leafValues>
            -2.7168580889701843e-01 6.3382893800735474e-01</leafValues></_>
        <_>
          <internalNodes>
            0 -1 572 346837724 1402756700 -1226265261 -1351074267
            -1438049047 -1342342036 233908584 -1344400464</internalNodes>
          <leafValues>
            -3.5867241024971008e-01 4.6436119079589844e-01</leafValues></_>
        <_>
          <internalNodes>
            0 -1 297 2074292916 -1286140184 1358570393 289758177
            -1373124131 -1177981170 -1236208978 -1076154685</internalNodes>
          <leafValues>
            -2.6679515838623047e-01 6.1797004938125610e-01</leafValues></_>
        <_>
          <internalNodes>
            0 -1 156 1148646626 1879056133 -817746309 1935654901
            -867944799 457314624 760345481 -906950598</internalNodes>
          <leafValues>
            -3.4848704934120178e-01 4.7566840052604675e-01</leafValues></_>
        <_>
          <internalNodes>
            0 -1 641 -792946792 824286052 -2074792257 423470637
            754754249 -1369629716 166235051 -1701150654</internalNodes>
          <leafValues>
            -3.4331628680229187e-01 4.9330314993858337e-01</leafValues></_></weakClassifiers></_>
    <!-- stage 2 -->
    <_>
      <maxWeakCount>15</maxWeakCount>
      <stageThreshold>-6.6094028949737549e-01</stageThreshold>
      <weakClassifiers>
        <_>
          <internalNodes>
            0 -1 336 -584509455 -1549001255 -1082197005 1520239730
            -1895294283 -1615635376 779386057 420413696</internalNodes>
          <leafValues>
            -7.7071294188499451e-02 5.8965104818344116e-01</leafValues></_>
        <_>
          <internalNodes>
            0 -1 218 -886776130 1531321958 -536918029 -537198663
            -858415416 2093231257 2106952108 -90218912</internalNodes>
          <leafValues>
            -2.3751614987850189e-01 4.6985277533531189e-01</leafValues></_>
        <_>
          <internalNodes>
            0 -1 230 -1141899913 -1115648093 -659165187 -408682893
            -276634437 -1074663864 -572025079 -604682872</internalNodes>
          <leafValues>
            -1.9519349932670593e-01 5.9290462732315063e-01</leafValues></_>
        <_>
          <internalNodes>
            0 -1 502 -783017584 -78704603 -99347008 -1747517424
            1476405496 1929468041 -1332624487 -13495295</internalNodes>
          <leafValues>
            -3.5560330748558044e-01 3.4700125455856323e-01</leafValues></_>
        <_>
          <internalNodes>
            0 -1 389 -60502699 2111042599 2109369825 -383636633
            1961819316 619654962 -1997805645 -1123330770</internalNodes>
          <leafValues>
            -2.4764667451381683e-01 4.8925250768661499e-01</leafValues></_>
        <_>
          <internalNodes>
            0 -1 623 -62001964 -694045763 -483657 -1079214581 -453545990
            -1300242788 -1343226184 -1886653781</internalNodes>
          <leafValues>
            -2.4576693773269653e-01 5.0017958879470825e-01</leafValues></_>
        <_>
          <internalNodes>
            0 -1 625 -669507593 1559526444 1543417681 900537761
            -63165188 -867919234 -1116886019 -1922349680</internalNodes>
          <leafValues>
            -2.6431301236152649e-01 4.6041837334632874e-01</leafValues></_>
        <_>
          <internalNodes>
            0 -1 159 1282297212 -135004745 -1074108047 -285360260
            223660284 -1598720083 -1670087250 -53185256</internalNodes>
          <leafValues>
            -3.1020581722259521e-01 4.0628722310066223e-01</leafValues></_>
        <_>
          <internalNodes>
            0 -1 594 -822342279 93524514 -721419169 1065533465 350261318
            -1349648182 407383431 203232336</internalNodes>
          <leafValues>
            -4.6704962849617004e-01 2.8070870041847229e-01</leafValues></_>
        <_>
          <internalNodes>
            0 -1 203 899854579 -1956905054 -1347491210 872364001
            -1099137712 -211314835 -345665061 -96752148</internalNodes>
          <leafValues>
            -2.7568578720092773e-01 4.7121563553810120e-01</leafValues></_>
        <_>
          <internalNodes>
            0 -1 345 -152559855 1668786401 -1355827201 -309072337
            626020496 -9830587 618006374 -705543136</internalNodes>
          <leafValues>
            -3.0436855554580688e-01 4.2011889815330505e-01</leafValues></_>
        <_>
          <internalNodes>
            0 -1 684 809842771 -574632503 -414953483 -550523563
            1972505912 -310624289 -1778546957 -9471695</internalNodes>
          <leafValues>
            -2.4259082973003387e-01 5.4258519411087036e-01</leafValues></_>
        <_>
          <internalNodes>
            0 -1 73 -152257021 983583790 775868226 -1889514206
            -687948289 -268607559 -302234229 1120343325</internalNodes>
          <leafValues>
            -3.3963179588317871e-01 4.0263146162033081e-01</leafValues></_>
        <_>
          <internalNodes>
            0 -1 340 -1629179627 1010777976 -9007536 -135877709
            -2038655883 -1484943497 -1915875363 -554749109</internalNodes>
          <leafValues>
            -2.7859306335449219e-01 4.7634425759315491e-01</leafValues></_>
        <_>
          <internalNodes>
            0 -1 179 -2111516143 -41730589 -1733434117 -655067806
            -1177187210 -1636849169 433679565 1613382913</internalNodes>
          <leafValues>
            -3.6065110564231873e-01 3.9136937260627747e-01</leafValues></_></weakClassifiers></_>
    <!-- stage 3 -->
    <_>
      <maxWeakCount>16</maxWeakCount>
      <stageThreshold>-1.1286810636520386e+00</stageThreshold>
      <weakClassifiers>
        <_>
          <internalNodes>
            0 -1 113 1332790404 208979026 2147247793 -926872576
            1290570428 -276994701 1591020691 1271595690</internalNodes>
          <leafValues>
            -8.3333335816860199e-02 5.8156025409698486e-01</leafValues></_>
        <_>
          <internalNodes>
            0 -1 404 1465415645 300229675 196418613 -611381773
            -621243925 1008813770 -1162083185 453853323</internalNodes>
          <leafValues>
            -2.8404620289802551e-01 4.3481069803237915e-01</leafValues></_>
        <_>
          <internalNodes>
            0 -1 315 2105431536 1360445233 -1086951774 1476326915
            -321684740 -1185810452 1281482201 1268464109</internalNodes>
          <leafValues>
            -2.8242465853691101e-01 4.0834289789199829e-01</leafValues></_>
        <_>
          <internalNodes>
            0 -1 300 1945112013 -172544641 -1074394835 -751345041
            1465473320 -545464547 784154844 2130069699</internalNodes>
          <leafValues>
            -3.0160549283027649e-01 3.7306356430053711e-01</leafValues></_>
        <_>
          <internalNodes>
            0 -1 386 545448912 -1807626044 -1861214711 1263650067
            -1802927991 -888614646 -2012706755 157730080</internalNodes>
          <leafValues>
            -3.9502215385437012e-01 2.8792741894721985e-01</leafValues></_>
        <_>
          <internalNodes>
            0 -1 80 -648000668 330133289 -1364312915 -48791359
            -1042486601 790576949 -1754479217 -715175205</internalNodes>
          <leafValues>
            -2.6238298416137695e-01 4.4292753934860229e-01</leafValues></_>
        <_>
          <internalNodes>
            0 -1 754 -385840944 1972198537 385526263 1400241467
            -797431153 -1917923609 -1259868417 -1365575762</internalNodes>
          <leafValues>
            -2.3173442482948303e-01 5.0896400213241577e-01</leafValues></_>
        <_>
          <internalNodes>
            0 -1 490 1510352456 -1336736747 -602764288 -1139425005
            2022292120 -804650862 -1308448596 100881647</internalNodes>
          <leafValues>
            -3.8796207308769226e-01 3.2132339477539063e-01</leafValues></_>
        <_>
          <internalNodes>
            0 -1 260 730906818 1200222890 -1296428364 -751764574
            -190679988 651064900 907318218 -570749700</internalNodes>
          <leafValues>
            -3.3598524332046509e-01 3.8167226314544678e-01</leafValues></_>
        <_>
          <internalNodes>
            0 -1 614 -1724363404 -1612575165 1206545417 -763814148
            -1638317587 -1979912419 -1090634454 -1991633683</internalNodes>
          <leafValues>
            -3.0058965086936951e-01 4.3656864762306213e-01</leafValues></_>
        <_>
          <internalNodes>
            0 -1 409 1449207189 -1832943875 1056778977 2138913829
            -551547683 -549579817 1709057146 -97109846</internalNodes>
          <leafValues>
            -3.2982629537582397e-01 4.0179356932640076e-01</leafValues></_>
        <_>
          <internalNodes>
            0 -1 788 -780021538 -1117200861 -1848651220 -705966772
            -882338161 504295294 68916942 -912262160</internalNodes>
          <leafValues>
            -2.2258542478084564e-01 5.7447302341461182e-01</leafValues></_>
        <_>
          <internalNodes>
            0 -1 90 -25308948 -1412100114 -840958899 -1894404523
            1163849363 1196313947 -1530641251 726378143</internalNodes>
          <leafValues>
            -3.4589684009552002e-01 4.1704592108726501e-01</leafValues></_>
        <_>
          <internalNodes>
            0 -1 638 1963116696 1363641760 16818245 1470578839
            -2143107958 1353222297 1401847842 -1583674269</internalNodes>
          <leafValues>
            -3.1665870547294617e-01 4.3103927373886108e-01</leafValues></_>
        <_>
          <internalNodes>
            0 -1 20 -752835108 -1877999455 -2147376627 -1546567420
            956355067 -3583863 782780808 -316450541</internalNodes>
          <leafValues>
            -3.1464219093322754e-01 4.3338719010353088e-01</leafValues></_>
        <_>
          <internalNodes>
            0 -1 482 1381371388 -1962245628 411062420 30606604 671509723
            -121339750 1074037260 1208234101</internalNodes>
          <leafValues>
            -4.3366113305091858e-01 3.2175415754318237e-01</leafValues></_></weakClassifiers></_>
    <!-- stage 4 -->
    <_>
      <maxWeakCount>18</maxWeakCount>
      <stageThreshold>-9.8519194126129150e-01</stageThreshold>
      <weakClassifiers>
        <_>
          <internalNodes>
            0 -1 47 -25170486 -611194803 1652967949 290831881
            -1790422868 1095748672 1432651919 1846529352</internalNodes>
          <leafValues>
            -6.1349691823124886e-03 5.8178317546844482e-01</leafValues></_>
        <_>
          <internalNodes>
            0 -1 273 -243376648 2110453617 -136053892 -540899 1601361598
            -1397194972 1878615689 -633312176</internalNodes>
          <leafValues>
            -2.1588665246963501e-01 4.4547379016876221e-01</leafValues></_>
        <_>
          <internalNodes>
            0 -1 344 -615177020 -1849040765 1343759827 -169781311
            -1161802144 -267698168 -1449119618 882129835</internalNodes>
          <leafValues>
            -3.5117337107658386e-01 2.9547265172004700e-01</leafValues></_>
        <_>
          <internalNodes>
            0 -1 406 1534391280 -747160368 2119450897 2043508458
            -175848830 -591157443 1661731785 -217473765</internalNodes>
          <leafValues>
            -2.4313229322433472e-01 4.2478552460670471e-01</leafValues></_>
        <_>
          <internalNodes>
            0 -1 413 -141830272 1897916880 -1275349018 1609744895
            215285698 -1762833136 1581956014 -72630881</internalNodes>
          <leafValues>
            -2.5666987895965576e-01 4.4863960146903992e-01</leafValues></_>
        <_>
          <internalNodes>
            0 -1 449 1544631501 -686714731 433166596 1250887907
            -903829267 -1157074814 -314463334 558784652</internalNodes>
          <leafValues>
            -3.2956862449645996e-01 3.1988611817359924e-01</leafValues></_>
        <_>
          <internalNodes>
            0 -1 161 -855971316 1802526983 302023008 1463388174
            169941269 1379993354 1489791328 1123780943</internalNodes>
          <leafValues>
            -3.7001764774322510e-01 3.0436155200004578e-01</leafValues></_>
        <_>
          <internalNodes>
            0 -1 114 -260989830 1953143315 -672936196 1505044098
            397772515 -1621065871 2103217919 -1936912634</internalNodes>
          <leafValues>
            -3.0643481016159058e-01 3.5784557461738586e-01</leafValues></_>
        <_>
          <internalNodes>
            0 -1 703 1275707440 -1676852964 606221 -1659973413
            -1071639921 -1975461752 675422418 781109956</internalNodes>
          <leafValues>
            -3.4532573819160461e-01 3.2959872484207153e-01</leafValues></_>
        <_>
          <internalNodes>
            0 -1 41 1791637566 -285179872 1158727837 -1337720783
            276972288 -662682936 -1441199073 1254161026</internalNodes>
          <leafValues>
            -4.2046818137168884e-01 2.7149459719657898e-01</leafValues></_>
        <_>
          <internalNodes>
            0 -1 682 -1870012225 -831257 -351324495 -75928287 713470671
            -928711044 -1529619269 -2047139878</internalNodes>
          <leafValues>
            -2.1022906899452209e-01 5.8505547046661377e-01</leafValues></_>
        <_>
          <internalNodes>
            0 -1 568 -266006340 -308800059 134744739 -811465 -2060730168
            -142854280 -1960906005 -312766713</internalNodes>
          <leafValues>
            -2.0532359182834625e-01 5.2221584320068359e-01</leafValues></_>
        <_>
          <internalNodes>
            0 -1 519 1249109344 1707626523 1350832141 -694516464
            -1065313092 -1440181589 692821393 1384452225</internalNodes>
          <leafValues>
            -3.9761224389076233e-01 2.9640597105026245e-01</leafValues></_>
        <_>
          <internalNodes>
            0 -1 543 -1681726983 -302990331 1876893179 -845455491
            -1490961702 -1808427024 -943735365 -83107109</internalNodes>
          <leafValues>
            -2.0598454773426056e-01 6.0155504941940308e-01</leafValues></_>
        <_>
          <internalNodes>
            0 -1 205 -320475169 2104438699 1744223885 -1779443221
            1718084849 -303277056 -1208160003 -813176018</internalNodes>
          <leafValues>
            -1.8471914529800415e-01 6.1679655313491821e-01</leafValues></_>
        <_>
          <internalNodes>
            0 -1 243 2043759836 1426690525 -1853865915 -2078785465
            865632557 -1333788125 -1434383863 -2093530971</internalNodes>
          <leafValues>
            -3.7995705008506775e-01 3.4201893210411072e-01</leafValues></_>
        <_>
          <internalNodes>
            0 -1 74 1394681926 206049290 1208054208 498085920 1375771311
            -234254152 218240291 1117120667</internalNodes>
          <leafValues>
            -4.4199559092521667e-01 3.0213585495948792e-01</leafValues></_>
        <_>
          <internalNodes>
            0 -1 339 494654912 460815928 2146348659 1532849881 999313300
            383773073 2002239624 -1554291336</internalNodes>
          <leafValues>
            -3.4598740935325623e-01 3.7403085827827454e-01</leafValues></_></weakClassifiers></_>
    <!-- stage 5 -->
    <_>
      <maxWeakCount>18</maxWeakCount>
      <stageThreshold>-8.2351064682006836e-01</stageThreshold>
      <weakClassifiers>
        <_>
          <internalNodes>
            0 -1 259 -391893808 -1103747793 2145295982 2117447148
            72099460 -1361814276 498208010 604535834</internalNodes>
          <leafValues>
            -1.7168675363063812e-01 4.9803537130355835e-01</leafValues></_>
        <_>
          <internalNodes>
            0 -1 115 -700923632 -762834845 921110261 699384145
            -1444112139 -8565150 -1063565665 1854341867</internalNodes>
          <leafValues>
            -2.7920663356781006e-01 3.5065817832946777e-01</leafValues></_>
        <_>
          <internalNodes>
            0 -1 343 -4132630 -169496704 1932530785 -40636944
            -1777068150 -704481981 1922571963 -187726050</internalNodes>
          <leafValues>
            -2.1596296131610870e-01 4.8816415667533875e-01</leafValues></_>
        <_>
          <internalNodes>
            0 -1 535 -1072112400 -610951151 21521 1595293713 -937229942
            -1843392376 -2113369414 175655072</internalNodes>
          <leafValues>
            -3.3193191885948181e-01 3.1067550182342529e-01</leafValues></_>
        <_>
          <internalNodes>
            0 -1 372 -147260176 -580111939 -285280724 430257969
            -177055750 -54648849 2130349950 -1457920963</internalNodes>
          <leafValues>
            -2.7621814608573914e-01 4.0620133280754089e-01</leafValues></_>
        <_>
          <internalNodes>
            0 -1 221 -214961851 -1988724867 1828613349 1432322045
            1306876957 -138447746 1240783419 -1347969233</internalNodes>
          <leafValues>
            -2.4125827848911285e-01 4.5473024249076843e-01</leafValues></_>
        <_>
          <internalNodes>
            0 -1 599 -204892201 -7426973 1079394507 -72903079 828686570
            -285631843 138445739 -609794166</internalNodes>
          <leafValues>
            -1.7380657792091370e-01 6.0924226045608521e-01</leafValues></_>
        <_>
          <internalNodes>
            0 -1 624 -1315913519 -14087042 397561243 -1778825595
            -63382802 -277054430 699603791 -1425340766</internalNodes>
          <leafValues>
            -2.2428424656391144e-01 4.8532879352569580e-01</leafValues></_>
        <_>
          <internalNodes>
            0 -1 363 -213798303 2080157608 1727061765 -1893632132
            1645257470 -1696586399 -1636610706 -98845365</internalNodes>
          <leafValues>
            -2.2245356440544128e-01 4.8865014314651489e-01</leafValues></_>
        <_>
          <internalNodes>
            0 -1 503 -8859280 -1666196463 -1094877067 -212003561
            -1791481624 -408660368 919757789 1329101122</internalNodes>
          <leafValues>
            -2.9583242535591125e-01 3.7442830204963684e-01</leafValues></_>
        <_>
          <internalNodes>
            0 -1 656 -1377528069 1575775947 690939781 -140939946
            1421405946 -1379217675 934307160 -1906664375</internalNodes>
          <leafValues>
            -2.2142185270786285e-01 5.1659309864044189e-01</leafValues></_>
        <_>
          <internalNodes>
            0 -1 81 -675683384 -1147506719 1056845437 -235076093
            -396308726 -805870425 -335686197 -871742291</internalNodes>
          <leafValues>
            -2.8734463453292847e-01 4.4483470916748047e-01</leafValues></_>
        <_>
          <internalNodes>
            0 -1 464 -417206032 1418131686 1043329835 1295717683
            -1861135024 -1335779564 553243839 1230394303</internalNodes>
          <leafValues>
            -3.2959327101707458e-01 3.6750474572181702e-01</leafValues></_>
        <_>
          <internalNodes>
            0 -1 726 -40193936 -571458902 -1918853380 1462222070
            1055186591 -1366968090 -1922042226 -1689549401</internalNodes>
          <leafValues>
            -2.5732919573783875e-01 4.8342782258987427e-01</leafValues></_>
        <_>
          <internalNodes>
            0 -1 538 -455870832 2113995136 -687307711 -1853880124
            -790189415 -582352758 -2146926818 426395976</internalNodes>
          <leafValues>
            -3.7158870697021484e-01 3.3904117345809937e-01</leafValues></_>
        <_>
          <internalNodes>
            0 -1 479 2050264460 467337602 -788250623 269832397
            1073926982 309010433 -368885730 464090658</internalNodes>
          <leafValues>
            -3.9457911252975464e-01 3.2501491904258728e-01</leafValues></_>
        <_>
          <internalNodes>
            0 -1 316 1780579302 -608884907 955493594 -8765775 1048555402
            1718836805 -1479227972 2108958014</internalNodes>
          <leafValues>
            -3.1150209903717041e-01 4.0859988331794739e-01</leafValues></_>
        <_>
          <internalNodes>
            0 -1 614 1564001776 1240073309 536820761 543706858
            -1910750819 -1644888295 -1103470657 -1382992860</internalNodes>
          <leafValues>
            -3.2729864120483398e-01 3.9303743839263916e-01</leafValues></_></weakClassifiers></_>
    <!-- stage 6 -->
    <_>
      <maxWeakCount>21</maxWeakCount>
      <stageThreshold>-7.6324951648712158e-01</stageThreshold>
      <weakClassifiers>
        <_>
          <internalNodes>
            0 -1 560 169871618 1074267496 -1900159369 492286485
            270309251 -2090820233 398185711 488383637</internalNodes>
          <leafValues>
            -1.3742689788341522e-01 4.9305555224418640e-01</leafValues></_>
        <_>
          <internalNodes>
            0 -1 297 -763366933 -1353200920 819011818 -243935056
            -189832485 -1445900406 651932379 -258024757</internalNodes>
          <leafValues>
            -1.4426122605800629e-01 5.9609228372573853e-01</leafValues></_>
        <_>
          <internalNodes>
            0 -1 53 1495037896 -9077780 1052667639 -1233218011
            -1795873656 1544896445 1257668559 1595850634</internalNodes>
          <leafValues>
            -2.8499263525009155e-01 3.2732775807380676e-01</leafValues></_>
        <_>
          <internalNodes>
            0 -1 72 -78451473 2100922610 -1880263533 1441687625
            1716028085 -385919778 1865362603 -671876114</internalNodes>
          <leafValues>
            -2.2902485728263855e-01 4.9815160036087036e-01</leafValues></_>
        <_>
          <internalNodes>
            0 -1 191 -743704492 -1941158541 -268493759 476124617
            -151239951 1719512703 -420211679 -123790598</internalNodes>
          <leafValues>
            -2.4922838807106018e-01 3.8746869564056396e-01</leafValues></_>
        <_>
          <internalNodes>
            0 -1 415 559262346 141689506 67192929 423084696 -1278369602
            791255961 1694687519 -1498518334</internalNodes>
          <leafValues>
            -3.6661654710769653e-01 3.1064009666442871e-01</leafValues></_>
        <_>
          <internalNodes>
            0 -1 139 -516808710 -251998992 1928768105 1474856712
            1920423613 -557552783 1433591016 -277506441</internalNodes>
          <leafValues>
            -2.4628837406635284e-01 4.2466253042221069e-01</leafValues></_>
        <_>
          <internalNodes>
            0 -1 487 280754136 -1838411592 1543897313 -171916861
            1387386010 271593536 139507539 564586107</internalNodes>
          <leafValues>
            -3.4398487210273743e-01 3.1408557295799255e-01</leafValues></_>
        <_>
          <internalNodes>
            0 -1 216 -1596851902 -32693887 -2012640224 -698593051
            1095860236 -1396023040 889243747 1346425499</internalNodes>
          <leafValues>
            -3.7266883254051208e-01 3.0485975742340088e-01</leafValues></_>
        <_>
          <internalNodes>
            0 -1 773 -63187843 1429282912 972980972 -738605014
            -1386272098 2024615158 -844795458 -1282767281</internalNodes>
          <leafValues>
            -2.0001015067100525e-01 5.4964911937713623e-01</leafValues></_>
        <_>
          <internalNodes>
            0 -1 683 352368000 -1560276544 -1540812663 52232373
            1930581223 -2086399847 -2013183501 1013544973</internalNodes>
          <leafValues>
            -4.3372991681098938e-01 2.6863986253738403e-01</leafValues></_>
        <_>
          <internalNodes>
            0 -1 43 -1729437332 217055242 -692034358 -1895169406
            -267758750 1644757248 -1065286677 1886675547</internalNodes>
          <leafValues>
            -4.3607997894287109e-01 2.6292434334754944e-01</leafValues></_>
        <_>
          <internalNodes>
            0 -1 424 -441892662 -1218012399 -744593353 -1821439319
            1407366570 1970958151 -1304936002 -206931013</internalNodes>
          <leafValues>
            -2.6019927859306335e-01 4.6266937255859375e-01</leafValues></_>
        <_>
          <internalNodes>
            0 -1 335 -7648095 231351639 473960711 -213679786 -66909294
            1275498528 1233705128 -967674368</internalNodes>
          <leafValues>
            -3.3695903420448303e-01 3.4780785441398621e-01</leafValues></_>
        <_>
          <internalNodes>
            0 -1 508 -162399779 -47153444 -285315287 1359342261
            -1099381586 -56441423 2143083419 -1351642674</internalNodes>
          <leafValues>
            -1.6602675616741180e-01 7.0277023315429688e-01</leafValues></_>
        <_>
          <internalNodes>
            0 -1 67 -1786094974 -1606135729 1698726955 944619544
            1090560410 -796909520 1200832 1756580649</internalNodes>
          <leafValues>
            -3.6573129892349243e-01 3.4312203526496887e-01</leafValues></_>
        <_>
          <internalNodes>
            0 -1 806 -821116280 319984147 -803886686 -620658555
            -1562347411 671129602 -1614179890 1137263497</internalNodes>
          <leafValues>
            -3.6158475279808044e-01 3.3139851689338684e-01</leafValues></_>
        <_>
          <internalNodes>
            0 -1 380 708749803 774335213 2135354769 -247927700
            -219020525 1807588733 -449162864 1004140107</internalNodes>
          <leafValues>
            -3.1955462694168091e-01 3.8966172933578491e-01</leafValues></_>
        <_>
          <internalNodes>
            0 -1 608 1288540470 -181269300 1060997557 -1077944974
            289382910 -1287315604 -380559985 -343986441</internalNodes>
          <leafValues>
            -2.6601484417915344e-01 4.8994243144989014e-01</leafValues></_>
        <_>
          <internalNodes>
            0 -1 725 -681378601 -1620545740 1905589039 -6817078
            -726333460 633761450 1791884522 -1080182554</internalNodes>
          <leafValues>
            -2.1076972782611847e-01 6.0917222499847412e-01</leafValues></_>
        <_>
          <internalNodes>
            0 -1 546 1419242520 -192921330 -334966784 946370562
            -2128516644 1763903560 1112137984 559788216</internalNodes>
          <leafValues>
            -4.4605857133865356e-01 2.9699653387069702e-01</leafValues></_></weakClassifiers></_>
    <!-- stage 7 -->
    <_>
      <maxWeakCount>18</maxWeakCount>
      <stageThreshold>-7.3093771934509277e-01</stageThreshold>
      <weakClassifiers>
        <_>
          <internalNodes>
            0 -1 272 -1112227652 1445996405 -84140235 -1175131367
            -866081602 -1672701985 -303898435 985028736</internalNodes>
          <leafValues>
            3.9246466010808945e-02 5.9607291221618652e-01</leafValues></_>
        <_>
          <internalNodes>
            0 -1 583 -1984929552 -1649124126 -1209411315 -1756757234
            -1096230248 -1379082302 -1231381575 -1912072544</internalNodes>
          <leafValues>
            -2.3975446820259094e-01 4.0378773212432861e-01</leafValues></_>
        <_>
          <internalNodes>
            0 -1 488 -585631363 -1082476387 -307691609 -13784457
            -1538988856 -75764331 -1542200965 -1087904993</internalNodes>
          <leafValues>
            -1.7444662749767303e-01 5.7481068372726440e-01</leafValues></_>
        <_>
          <internalNodes>
            0 -1 595 -148252744 -91169286 -1131497287 -673997459
            -627858696 -909356352 -1569999409 -326329502</internalNodes>
          <leafValues>
            -2.6631489396095276e-01 4.2504817247390747e-01</leafValues></_>
        <_>
          <internalNodes>
            0 -1 631 -161436440 -468215612 -1161893381 -6177568
            -823601238 -918517146 -241556054 -2119709741</internalNodes>
          <leafValues>
            -2.4628031253814697e-01 4.0943846106529236e-01</leafValues></_>
        <_>
          <internalNodes>
            0 -1 561 -1635778288 1343721702 406847937 -706497718
            -1013266390 -642742271 17435595 -98172337</internalNodes>
          <leafValues>
            -3.1603860855102539e-01 3.4216600656509399e-01</leafValues></_>
        <_>
          <internalNodes>
            0 -1 0 -1274507432 -1856151466 1073815708 324806467
            818954743 -1421793269 2065115038 739203124</internalNodes>
          <leafValues>
            -3.9697766304016113e-01 2.7670252323150635e-01</leafValues></_>
        <_>
          <internalNodes>
            0 -1 466 -437141280 -1931849719 16937121 -1783201763
            -673988566 971279106 -1593786226 826154178</internalNodes>
          <leafValues>
            -3.6175552010536194e-01 3.1057953834533691e-01</leafValues></_>
        <_>
          <internalNodes>
            0 -1 299 -14816419 2113392553 2124856572 1719518451
            452347645 1851764598 1718012472 -177010605</internalNodes>
          <leafValues>
            -2.5012680888175964e-01 4.3967324495315552e-01</leafValues></_>
        <_>
          <internalNodes>
            0 -1 746 -665067811 -143170894 1644066215 2136993157
            -554266851 1833778413 -1594520614 -5776189</internalNodes>
          <leafValues>
            -1.6917580366134644e-01 6.6448879241943359e-01</leafValues></_>
        <_>
          <internalNodes>
            0 -1 456 1780752825 644136886 268185127 1253310366
            1213549642 1337560012 -556325378 -1641831247</internalNodes>
          <leafValues>
            -2.9920077323913574e-01 3.9116796851158142e-01</leafValues></_>
        <_>
          <internalNodes>
            0 -1 330 -804141604 -262925920 1211109584 -719306734
            -2105272161 722698339 -1169126907 740426364</internalNodes>
          <leafValues>
            -3.9375084638595581e-01 2.8929737210273743e-01</leafValues></_>
        <_>
          <internalNodes>
            0 -1 365 1325318488 1476690446 17129529 495719198
            -1870206732 -242670450 -1172192765 -1760949920</internalNodes>
          <leafValues>
            -3.6204472184181213e-01 3.3367562294006348e-01</leafValues></_>
        <_>
          <internalNodes>
            0 -1 82 -2084128258 -554454212 1995408273 -690930652
            -1762616304 -1127513248 782552800 -2027968509</internalNodes>
          <leafValues>
            -3.0135056376457214e-01 4.0654984116554260e-01</leafValues></_>
        <_>
          <internalNodes>
            0 -1 217 1985814468 2009026021 -1161253217 -675582104
            804620288 402464277 792762587 -1113493573</internalNodes>
          <leafValues>
            -3.1601881980895996e-01 3.7732583284378052e-01</leafValues></_>
        <_>
          <internalNodes>
            0 -1 666 -759215409 -206620470 98987519 -726163645
            -730100082 -639570604 -272130110 -89396082</internalNodes>
          <leafValues>
            -1.9424143433570862e-01 5.9728306531906128e-01</leafValues></_>
        <_>
          <internalNodes>
            0 -1 333 -275140525 -1111861838 -310970571 -1081610375
            -2014233934 -302719387 1030330121 -527918922</internalNodes>
          <leafValues>
            -2.3103073239326477e-01 4.8043960332870483e-01</leafValues></_>
        <_>
          <internalNodes>
            0 -1 203 -1550331789 -1248248277 -268502153 -1291903497
            -1485015734 1173325606 -489718297 -1722025773</internalNodes>
          <leafValues>
            -2.4071955680847168e-01 4.8662593960762024e-01</leafValues></_></weakClassifiers></_>
    <!-- stage 8 -->
    <_>
      <maxWeakCount>19</maxWeakCount>
      <stageThreshold>-7.4291300773620605e-01</stageThreshold>
      <weakClassifiers>
        <_>
          <internalNodes>
            0 -1 25 -280524605 1468483960 -269743604 -906555898
            383158203 -822793529 -2038670582 -32026945</internalNodes>
          <leafValues>
            8.7557606399059296e-02 6.4944964647293091e-01</leafValues></_>
        <_>
          <internalNodes>
            0 -1 626 -642755212 913137179 -1280148101 -537669160
            -1359441926 -119952856 -1608339745 -1145885653</internalNodes>
          <leafValues>
            -1.5787366032600403e-01 4.9887976050376892e-01</leafValues></_>
        <_>
          <internalNodes>
            0 -1 418 -545992488 -404701 783886208 -202514505 396415112
            -4741586 1530965923 -216810869</internalNodes>
          <leafValues>
            -1.9673748314380646e-01 4.5504227280616760e-01</leafValues></_>
        <_>
          <internalNodes>
            0 -1 261 -1649875072 1966440802 1887506689 2065564034
            -1104139520 959467520 1707084447 -210165117</internalNodes>
          <leafValues>
            -3.4169667959213257e-01 2.9021650552749634e-01</leafValues></_>
        <_>
          <internalNodes>
            0 -1 715 15492096 268480954 1728155669 1054523796 1655245295
            526852 1426797575 131349546</internalNodes>
          <leafValues>
            -4.9090766906738281e-01 2.0636844635009766e-01</leafValues></_>
        <_>
          <internalNodes>
            0 -1 705 -856042084 1353186080 117421706 1692826406
            369034988 -1340776811 -1090677622 -1741456418</internalNodes>
          <leafValues>
            -3.0897071957588196e-01 3.4837183356285095e-01</leafValues></_>
        <_>
          <internalNodes>
            0 -1 475 -708251312 -586676800 1233519175 -534380228
            -1610548504 998246537 574756401 1151545029</internalNodes>
          <leafValues>
            -3.5734951496124268e-01 3.2408884167671204e-01</leafValues></_>
        <_>
          <internalNodes>
            0 -1 753 -744675338 -382131155 1039155047 -798377531
            -814207001 -1158385795 687816099 -814523593</internalNodes>
          <leafValues>
            -2.4439434707164764e-01 4.6601518988609314e-01</leafValues></_>
        <_>
          <internalNodes>
            0 -1 641 1950114236 1913223782 -1939084581 966596204
            901515419 -2074254423 -1310157889 -1195932765</internalNodes>
          <leafValues>
            -2.7715644240379333e-01 4.1628003120422363e-01</leafValues></_>
        <_>
          <internalNodes>
            0 -1 540 -536677996 306646264 1759358351 -48357390
            -1641996878 -1364396844 -711838470 -559275237</internalNodes>
          <leafValues>
            -2.6891282200813293e-01 4.3455943465232849e-01</leafValues></_>
        <_>
          <internalNodes>
            0 -1 700 -596497925 1168669372 452886449 -165515597
            -77062419 -1359679489 -1836250837 -1631955920</internalNodes>
          <leafValues>
            -2.8018921613693237e-01 3.9888432621955872e-01</leafValues></_>
        <_>
          <internalNodes>
            0 -1 665 -1878782344 -1901526395 -1065336763 486242958
            1646301184 -283909976 621316748 -1488213323</internalNodes>
          <leafValues>
            -3.4204453229904175e-01 3.3611792325973511e-01</leafValues></_>
        <_>
          <internalNodes>
            0 -1 444 -1603218047 1366916779 -370692369 -1644797273
            -2097393294 -1863287458 -170466337 -247863213</internalNodes>
          <leafValues>
            -2.4070505797863007e-01 4.7911942005157471e-01</leafValues></_>
        <_>
          <internalNodes>
            0 -1 348 -2058071844 1435109650 2671659 -2015743653
            541080131 -132513792 1392749091 -1258085485</internalNodes>
          <leafValues>
            -3.3249062299728394e-01 3.5613280534744263e-01</leafValues></_>
        <_>
          <internalNodes>
            0 -1 655 -319624056 -1740161716 2075911599 2019119025
            247479464 536868475 -1722099096 -1106755949</internalNodes>
          <leafValues>
            -3.0447465181350708e-01 4.0025562047958374e-01</leafValues></_>
        <_>
          <internalNodes>
            0 -1 547 -1857463092 -1683254300 1455387864 1874285776
            1595822394 2021637072 -100544674 -344042469</internalNodes>
          <leafValues>
            -3.0429318547248840e-01 3.9901480078697205e-01</leafValues></_>
        <_>
          <internalNodes>
            0 -1 506 -1809721616 -478272857 1866444398 -613472614
            933532075 1576839652 1966631020 -1277545182</internalNodes>
          <leafValues>
            -2.9607683420181274e-01 4.1824328899383545e-01</leafValues></_>
        <_>
          <internalNodes>
            0 -1 497 -1861330988 -1205513972 -805103039 524353946
            -258910015 -2100723135 -1459601253 -250591164</internalNodes>
          <leafValues>
            -3.6361354589462280e-01 3.4952259063720703e-01</leafValues></_>
        <_>
          <internalNodes>
            0 -1 601 1625590796 1352667929 -1491773400 84066564
            813728451 875790477 -1893584217 1667482326</internalNodes>
          <leafValues>
            -4.5438215136528015e-01 2.9746818542480469e-01</leafValues></_></weakClassifiers></_>
    <!-- stage 9 -->
    <_>
      <maxWeakCount>18</maxWeakCount>
      <stageThreshold>-1.0601732730865479e+00</stageThreshold>
      <weakClassifiers>
        <_>
          <internalNodes>
            0 -1 266 -821041593 1972354941 -1141685737 1358917283
            87303172 -1964542107 -900071400 -464253153</internalNodes>
          <leafValues>
            1.6891891136765480e-02 5.8047491312026978e-01</leafValues></_>
        <_>
          <internalNodes>
            0 -1 167 -101663498 1474099007 -1149469725 -1717420825
            273737213 -1412065419 -353247555 -16982627</internalNodes>
          <leafValues>
            -1.7232851684093475e-01 4.5746198296546936e-01</leafValues></_>
        <_>
          <internalNodes>
            0 -1 721 -1091570637 -596722160 788425441 177893922
            -92471554 -1194418953 681817842 -1406953944</internalNodes>
          <leafValues>
            -2.4533000588417053e-01 3.6396864056587219e-01</leafValues></_>
        <_>
          <internalNodes>
            0 -1 665 -124002566 -821996150 866347007 -1861399757
            -1074348165 -304979796 -2057528149 -1425308470</internalNodes>
          <leafValues>
            -2.2806067764759064e-01 4.5254939794540405e-01</leafValues></_>
        <_>
          <internalNodes>
            0 -1 378 184588516 170549514 151078100 -370605989 436232234
            -83193726 -745419585 220828232</internalNodes>
          <leafValues>
            -3.6386159062385559e-01 2.7742266654968262e-01</leafValues></_>
        <_>
          <internalNodes>
            0 -1 19 -1378316610 -938933576 1098963015 -880203968
            134448107 579471362 -1308484826 1301572623</internalNodes>
          <leafValues>
            -3.6526742577552795e-01 2.7311083674430847e-01</leafValues></_>
        <_>
          <internalNodes>
            0 -1 231 -1125659983 1109801385 816877291 996238964
            928508010 350025718 -136873011 1805515619</internalNodes>
          <leafValues>
            -2.5191882252693176e-01 4.1482818126678467e-01</leafValues></_>
        <_>
          <internalNodes>
            0 -1 663 -697906467 -9507811 -14519973 580896015 -1085229317
            -144384166 -401588230 -344997637</internalNodes>
          <leafValues>
            -1.7776092886924744e-01 5.5914270877838135e-01</leafValues></_>
        <_>
          <internalNodes>
            0 -1 429 1304184671 -542872489 -420123697 934401323
            -1790140429 -1890255000 1405996793 -738313163</internalNodes>
          <leafValues>
            -2.0272395014762878e-01 4.8462095856666565e-01</leafValues></_>
        <_>
          <internalNodes>
            0 -1 100 -786970078 -573959271 -1810887483 545280777
            -752250658 209793073 -350164324 600362025</internalNodes>
          <leafValues>
            -3.5079100728034973e-01 3.0680200457572937e-01</leafValues></_>
        <_>
          <internalNodes>
            0 -1 691 1480374901 1910643824 -276887983 355421816
            897074982 -2021854238 1231894345 -2024158467</internalNodes>
          <leafValues>
            -2.8945064544677734e-01 3.8863965868949890e-01</leafValues></_>
        <_>
          <internalNodes>
            0 -1 755 1912454386 1202142498 -1711381520 -1716411237
            -1376601574 -328413202 -1493534981 -651388378</internalNodes>
          <leafValues>
            -2.6216724514961243e-01 4.2595410346984863e-01</leafValues></_>
        <_>
          <internalNodes>
            0 -1 342 924182845 1569160047 -185651533 1512157091
            479567416 1826156467 -136444545 -235817926</internalNodes>
          <leafValues>
            -2.5376707315444946e-01 4.2384430766105652e-01</leafValues></_>
        <_>
          <internalNodes>
            0 -1 515 -1299142100 1179140128 10585166 933085595
            -1996283448 -2138038088 -645769213 1521213604</internalNodes>
          <leafValues>
            -3.9012220501899719e-01 2.9042479395866394e-01</leafValues></_>
        <_>
          <internalNodes>
            0 -1 812 -1003258329 506122760 973164966 43750656 -896715407
            -910260093 -1476327360 1746145109</internalNodes>
          <leafValues>
            -4.1706329584121704e-01 2.7360051870346069e-01</leafValues></_>
        <_>
          <internalNodes>
            0 -1 28 277668290 -37224311 272648384 -1952968674 813752710
            1411383883 21570665 2023967107</internalNodes>
          <leafValues>
            -4.0379098057746887e-01 2.9760107398033142e-01</leafValues></_>
        <_>
          <internalNodes>
            0 -1 759 2041092840 1285591184 1343250848 -1593024357
            -1336862431 63086856 1430457150 314928473</internalNodes>
          <leafValues>
            -4.6050810813903809e-01 2.7299779653549194e-01</leafValues></_>
        <_>
          <internalNodes>
            0 -1 152 -1031099534 -130252645 -2139027371 -434958320
            -898414588 -1861689339 151703818 -161109941</internalNodes>
          <leafValues>
            -3.5086202621459961e-01 3.4187498688697815e-01</leafValues></_></weakClassifiers></_>
    <!-- stage 10 -->
    <_>
      <maxWeakCount>18</maxWeakCount>
      <stageThreshold>-6.8686616420745850e-01</stageThreshold>
      <weakClassifiers>
        <_>
          <internalNodes>
            0 -1 85 1498015618 -907493433 -317403584 877197296
            2093469573 79973917 -994788023 2080381707</internalNodes>
          <leafValues>
            -1.8633540719747543e-02 5.2941179275512695e-01</leafValues></_>
        <_>
          <internalNodes>
            0 -1 727 -562318560 -2010771934 -1153794114 -1961900022
            1878515644 -1388351681 -1900658717 -1949303098</internalNodes>
          <leafValues>
            -2.3816989362239838e-01 3.5434484481811523e-01</leafValues></_>
        <_>
          <internalNodes>
            0 -1 189 -1780820454 -1213489645 -1673885028 494511914
            -1137156675 -1217603753 -575289894 1337708352</internalNodes>
          <leafValues>
            -2.8104075789451599e-01 3.2611036300659180e-01</leafValues></_>
        <_>
          <internalNodes>
            0 -1 458 -5146665 1530856901 -1649412483 -2050592155
            922433016 -22906263 -1761579048 -336855751</internalNodes>
          <leafValues>
            -1.7081876099109650e-01 5.1320493221282959e-01</leafValues></_>
        <_>
          <internalNodes>
            0 -1 199 -2127445361 -815014187 83391616 -1791923737
            -2059932194 -1035217844 224982892 1464716717</internalNodes>
          <leafValues>
            -2.8248307108879089e-01 3.5277715325355530e-01</leafValues></_>
        <_>
          <internalNodes>
            0 -1 206 2035918811 1889368625 2105519517 -933503101
            1868615567 121558724 -169995047 -1600398922</internalNodes>
          <leafValues>
            -2.3383826017379761e-01 4.3234959244728088e-01</leafValues></_>
        <_>
          <internalNodes>
            0 -1 731 -227359088 -709333151 -950468719 1069440109
            -1532478583 1121779583 1321048125 -1351879291</internalNodes>
          <leafValues>
            -2.3260545730590820e-01 4.0735289454460144e-01</leafValues></_>
        <_>
          <internalNodes>
            0 -1 530 -1672741608 1606253875 -33622651 -243849543
            -1562938815 -1078812867 -2118693256 -1078527913</internalNodes>
          <leafValues>
            -2.6021295785903931e-01 3.8463294506072998e-01</leafValues></_>
        <_>
          <internalNodes>
            0 -1 214 1964491040 1299172863 1844904695 2113515351
            72519196 -4227465 -1930242791 1185255315</internalNodes>
          <leafValues>
            -3.0671903491020203e-01 3.4605571627616882e-01</leafValues></_>
        <_>
          <internalNodes>
            0 -1 483 1901838012 -836120581 -4365197 -1527767320
            -329070724 -574751114 -1091735837 -1413792492</internalNodes>
          <leafValues>
            -2.7834367752075195e-01 3.8043403625488281e-01</leafValues></_>
        <_>
          <internalNodes>
            0 -1 451 -1486593465 1649127683 415387015 -219332503
            -1073294646 84570522 1707434762 19418842</internalNodes>
          <leafValues>
            -3.7942618131637573e-01 3.1258642673492432e-01</leafValues></_>
        <_>
          <internalNodes>
            0 -1 442 -252766587 -642093923 771626933 -1110827311
            1820261906 -1038319752 -1218986385 195022041</internalNodes>
          <leafValues>
            -2.8235435485839844e-01 3.8649088144302368e-01</leafValues></_>
        <_>
          <internalNodes>
            0 -1 252 -1288709914 -1983907336 2004724225 -203110425
            -560196710 257915468 1315227625 -917014812</internalNodes>
          <leafValues>
            -2.5095939636230469e-01 4.3605774641036987e-01</leafValues></_>
        <_>
          <internalNodes>
            0 -1 603 -110824451 -1379772375 -1712954657 -574095519
            -324280389 -5396950 -1279605569 -36181597</internalNodes>
          <leafValues>
            -1.6783910989761353e-01 7.0047003030776978e-01</leafValues></_>
        <_>
          <internalNodes>
            0 -1 412 1075673353 874610932 1392706007 147907920 117583792
            520094008 165789830 673255716</internalNodes>
          <leafValues>
            -4.8147293925285339e-01 2.4848714470863342e-01</leafValues></_>
        <_>
          <internalNodes>
            0 -1 314 -662701663 695946623 -332405481 905260961
            -154588195 -263233665 1462304427 -269570106</internalNodes>
          <leafValues>
            -2.1344031393527985e-01 5.4883116483688354e-01</leafValues></_>
        <_>
          <internalNodes>
            0 -1 654 -207251367 -1082470997 703567211 -1480148107
            -1967793430 -1199899024 -1617032004 2134044637</internalNodes>
          <leafValues>
            -2.1092905104160309e-01 5.0374358892440796e-01</leafValues></_>
        <_>
          <internalNodes>
            0 -1 394 -1609499665 -110105120 859472087 -665552027
            561446535 -330008612 -210291280 -730747090</internalNodes>
          <leafValues>
            -2.8241106867790222e-01 4.0003743767738342e-01</leafValues></_></weakClassifiers></_>
    <!-- stage 11 -->
    <_>
      <maxWeakCount>19</maxWeakCount>
      <stageThreshold>-5.3503751754760742e-01</stageThreshold>
      <weakClassifiers>
        <_>
          <internalNodes>
            0 -1 749 1147990124 10266630 1857459720 1279581388
            -160496636 140803399 149809976 11193022</internalNodes>
          <leafValues>
            -1.6524702310562134e-01 4.7184097766876221e-01</leafValues></_>
        <_>
          <internalNodes>
            0 -1 246 -138676021 -1473034656 1397555330 1348706215
            -689835810 117949646 618530111 1795679655</internalNodes>
          <leafValues>
            -1.8256737291812897e-01 4.4313713908195496e-01</leafValues></_>
        <_>
          <internalNodes>
            0 -1 403 -672666758 -576103734 843725497 -273932459
            1065469383 1435940325 -996779781 -8391125</internalNodes>
          <leafValues>
            -1.6235752403736115e-01 5.0906693935394287e-01</leafValues></_>
        <_>
          <internalNodes>
            0 -1 342 -251658267 -715489479 636481313 -847794397
            -1933658447 -559157263 -537602709 -539501630</internalNodes>
          <leafValues>
            -1.7908917367458344e-01 5.5149167776107788e-01</leafValues></_>
        <_>
          <internalNodes>
            0 -1 672 771929386 713852968 1073749169 680153020 1118931082
            495291543 214040707 812108684</internalNodes>
          <leafValues>
            -4.3058246374130249e-01 2.1994601190090179e-01</leafValues></_>
        <_>
          <internalNodes>
            0 -1 547 1432587024 313758219 1603214491 -187327216
            -724414296 -1200832824 -560412960 -325503992</internalNodes>
          <leafValues>
            -3.0308726429939270e-01 3.2709339261054993e-01</leafValues></_>
        <_>
          <internalNodes>
            0 -1 582 2053817464 943466539 1815867251 -609112263
            1047887682 1031798453 -801296393 -1683564207</internalNodes>
          <leafValues>
            -3.0529278516769409e-01 3.3853381872177124e-01</leafValues></_>
        <_>
          <internalNodes>
            0 -1 512 1647262382 1303482258 -1376104601 1073726643
            -1875534177 -33763339 349673090 2104448982</internalNodes>
          <leafValues>
            -3.0835741758346558e-01 3.3441379666328430e-01</leafValues></_>
        <_>
          <internalNodes>
            0 -1 351 1796149113 1874689396 -1074804151 -289739159
            -1126988595 2004277241 2069259657 -52395369</internalNodes>
          <leafValues>
            -2.3257352411746979e-01 4.3365487456321716e-01</leafValues></_>
        <_>
          <internalNodes>
            0 -1 789 -1285677056 -1870249696 1108049954 -2141847069
            -1579759522 1195641410 -718490302 323347168</internalNodes>
          <leafValues>
            -4.6350866556167603e-01 2.3543602228164673e-01</leafValues></_>
        <_>
          <internalNodes>
            0 -1 463 -174623563 -968441598 1611529267 -87209659
            307102536 2043666829 -1104074227 364005898</internalNodes>
          <leafValues>
            -3.4323060512542725e-01 3.2865184545516968e-01</leafValues></_>
        <_>
          <internalNodes>
            0 -1 673 -1981052744 1594617986 -1901342031 -1356161101
            324135217 -864667010 -1017224963 -448120857</internalNodes>
          <leafValues>
            -2.8539949655532837e-01 3.8850978016853333e-01</leafValues></_>
        <_>
          <internalNodes>
            0 -1 489 -427822317 480607723 -84101302 -674762761
            -824380285 -1865382283 -1642897 -1716996697</internalNodes>
          <leafValues>
            -2.2680599987506866e-01 4.9745145440101624e-01</leafValues></_>
        <_>
          <internalNodes>
            0 -1 564 -586643114 -541321841 1954493106 -26097430
            -1151908024 -1884047432 1863640251 -690323833</internalNodes>
          <leafValues>
            -2.4784415960311890e-01 4.5074689388275146e-01</leafValues></_>
        <_>
          <internalNodes>
            0 -1 263 -946122768 121387917 -335601863 1856671186
            -589398811 1593081334 238423512 -389147131</internalNodes>
          <leafValues>
            -3.3524051308631897e-01 3.4030762314796448e-01</leafValues></_>
        <_>
          <internalNodes>
            0 -1 250 -1772937070 671188505 -771749240 308238656
            516064389 562496078 -167771439 172081400</internalNodes>
          <leafValues>
            -4.5364814996719360e-01 2.5821271538734436e-01</leafValues></_>
        <_>
          <internalNodes>
            0 -1 143 -256845252 1340567122 -3209359 -1849487866
            489090796 -1803721866 2004290820 -1225334818</internalNodes>
          <leafValues>
            -3.2068037986755371e-01 3.5363575816154480e-01</leafValues></_>
        <_>
          <internalNodes>
            0 -1 172 -1439497454 90391560 34063692 542802378 -905443602
            -284589439 33554992 -1831599600</internalNodes>
          <leafValues>
            -4.4414258003234863e-01 2.6813152432441711e-01</leafValues></_>
        <_>
          <internalNodes>
            0 -1 280 694235222 -984575905 297861224 -1062141024
            724269372 1000523776 -1576418697 1734641827</internalNodes>
          <leafValues>
            -4.3024504184722900e-01 2.7327397465705872e-01</leafValues></_></weakClassifiers></_>
    <!-- stage 12 -->
    <_>
      <maxWeakCount>17</maxWeakCount>
      <stageThreshold>-6.6917085647583008e-01</stageThreshold>
      <weakClassifiers>
        <_>
          <internalNodes>
            0 -1 427 873530369 -1411208002 2055616469 -654347460
            738985043 754282107 120132023 -1193531329</internalNodes>
          <leafValues>
            -1.6683023422956467e-02 5.4550862312316895e-01</leafValues></_>
        <_>
          <internalNodes>
            0 -1 398 1597496277 -869343307 -1078509697 -135037382
            762426291 -1984345264 1954496369 -1099750639</internalNodes>
          <leafValues>
            -2.0029203593730927e-01 4.1473105549812317e-01</leafValues></_>
        <_>
          <internalNodes>
            0 -1 27 1985851039 -202084472 -1620632393 -49232638
            -1613472554 1071624158 -137704055 -1161105765</internalNodes>
          <leafValues>
            -1.7169016599655151e-01 5.1539695262908936e-01</leafValues></_>
        <_>
          <internalNodes>
            0 -1 612 1767180793 2003310375 1811808205 -836015489
            -674374405 -17989643 1073659629 -1938916012</internalNodes>
          <leafValues>
            -2.7398416399955750e-01 3.6280986666679382e-01</leafValues></_>
        <_>
          <internalNodes>
            0 -1 521 -804840922 -1945627759 1603798095 776737161
            1669587681 1515767968 831456231 198492948</internalNodes>
          <leafValues>
            -3.9195209741592407e-01 2.4567449092864990e-01</leafValues></_>
        <_>
          <internalNodes>
            0 -1 242 -1316832383 -1078071391 1878715856 1161724738
            -658153 1878914925 -424193186 -180938999</internalNodes>
          <leafValues>
            -2.4879477918148041e-01 3.8057488203048706e-01</leafValues></_>
        <_>
          <internalNodes>
            0 -1 747 -350536651 32878095 -1346540854 1671971878
            -1419888182 -1185452657 -1398480590 -1042024889</internalNodes>
          <leafValues>
            -2.6509746909141541e-01 3.9456123113632202e-01</leafValues></_>
        <_>
          <internalNodes>
            0 -1 382 23961567 495909654 -1377171599 -304597217
            1190887389 -268720677 -444737587 192267548</internalNodes>
          <leafValues>
            -2.5651979446411133e-01 4.0199327468872070e-01</leafValues></_>
        <_>
          <internalNodes>
            0 -1 7 -683014234 570724627 272671980 -564960984 -1466842228
            -687652608 -2127648250 1957064162</internalNodes>
          <leafValues>
            -3.6825820803642273e-01 2.8453049063682556e-01</leafValues></_>
        <_>
          <internalNodes>
            0 -1 178 586931059 -168907221 1039822821 -703967941
            2124991594 -451942408 1849571663 -425765485</internalNodes>
          <leafValues>
            -2.2741626203060150e-01 4.7509989142417908e-01</leafValues></_>
        <_>
          <internalNodes>
            0 -1 288 -281810765 -1192755294 699245179 325646587
            1271063643 -606086208 1068597198 936153693</internalNodes>
          <leafValues>
            -2.5283253192901611e-01 4.1374874114990234e-01</leafValues></_>
        <_>
          <internalNodes>
            0 -1 122 -157986117 -1629194306 469710768 -651621654
            1471381497 -835273225 -1479284772 -571199</internalNodes>
          <leafValues>
            -2.2509191930294037e-01 4.7810444235801697e-01</leafValues></_>
        <_>
          <internalNodes>
            0 -1 679 -931098447 -1388802687 440256670 -2118128159
            1570291371 -1987560462 382647739 450834340</internalNodes>
          <leafValues>
            -3.1400224566459656e-01 3.7357476353645325e-01</leafValues></_>
        <_>
          <internalNodes>
            0 -1 710 30702729 -1874571111 17258759 432850009 453110008
            -1607688058 -659523497 67481543</internalNodes>
          <leafValues>
            -3.6006614565849304e-01 3.3703377842903137e-01</leafValues></_>
        <_>
          <internalNodes>
            0 -1 634 -871320610 1938564666 -257339361 -1165844224
            -2113513299 -1870356157 1897586741 -1899083472</internalNodes>
          <leafValues>
            -3.5292935371398926e-01 3.4276837110519409e-01</leafValues></_>
        <_>
          <internalNodes>
            0 -1 484 -672075695 -1424138060 -59304342 -142703132
            498971600 1535110389 1429079835 -1098836613</internalNodes>
          <leafValues>
            -2.5480470061302185e-01 4.5840623974800110e-01</leafValues></_>
        <_>
          <internalNodes>
            0 -1 306 -562860503 -676561817 -285332823 -155484951
            -1266941351 1458425798 766584971 -869478466</internalNodes>
          <leafValues>
            -3.1175392866134644e-01 3.9335787296295166e-01</leafValues></_></weakClassifiers></_>
    <!-- stage 13 -->
    <_>
      <maxWeakCount>20</maxWeakCount>
      <stageThreshold>-5.8097410202026367e-01</stageThreshold>
      <weakClassifiers>
        <_>
          <internalNodes>
            0 -1 473 1936998164 1054699452 461247669 -1427521540
            939277657 -321119108 -948433219 -1276631936</internalNodes>
          <leafValues>
            -5.6694813072681427e-02 5.0614643096923828e-01</leafValues></_>
        <_>
          <internalNodes>
            0 -1 395 1398888399 559004704 1400732342 -611524243
            -551468565 -1141206701 -652544049 1251931481</internalNodes>
          <leafValues>
            -2.1675972640514374e-01 3.5496670007705688e-01</leafValues></_>
        <_>
          <internalNodes>
            0 -1 707 -783636774 1520867553 850087154 529906605
            -222761421 -995197300 762560191 -1175484822</internalNodes>
          <leafValues>
            -2.0444650948047638e-01 4.1649776697158813e-01</leafValues></_>
        <_>
          <internalNodes>
            0 -1 224 -460701604 840020674 268485064 -1700950012
            478482624 823198609 -534173399 1388336927</internalNodes>
          <leafValues>
            -4.4902783632278442e-01 1.8547415733337402e-01</leafValues></_>
        <_>
          <internalNodes>
            0 -1 418 -740343202 1610298119 -151383899 536653798
            -1759932223 -697077972 -79012181 -9722442</internalNodes>
          <leafValues>
            -1.8016749620437622e-01 4.9479025602340698e-01</leafValues></_>
        <_>
          <internalNodes>
            0 -1 669 -171208565 -775855160 1294866059 -573094484
            -358697814 1534688084 -1372078445 -1212343194</internalNodes>
          <leafValues>
            -2.2469040751457214e-01 4.5733401179313660e-01</leafValues></_>
        <_>
          <internalNodes>
            0 -1 277 1885447973 744828517 -83954409 2045471522
            -101613570 1672771340 -39405754 -1240099266</internalNodes>
          <leafValues>
            -2.4835075438022614e-01 3.9528518915176392e-01</leafValues></_>
        <_>
          <internalNodes>
            0 -1 327 -376294931 1350603530 1627406537 268559490
            1285970938 -2097014765 -1812768220 2097731073</internalNodes>
          <leafValues>
            -3.6792021989822388e-01 2.7310988306999207e-01</leafValues></_>
        <_>
          <internalNodes>
            0 -1 813 -193229249 -59937349 -872419958 578649918 478140707
            1837043293 -193506208 -289872775</internalNodes>
          <leafValues>
            -2.4140153825283051e-01 4.1984972357749939e-01</leafValues></_>
        <_>
          <internalNodes>
            0 -1 525 -1249649236 83886355 306279642 -1290369995
            -2144854615 -376404989 1139046093 690824560</internalNodes>
          <leafValues>
            -3.3111992478370667e-01 3.2306572794914246e-01</leafValues></_>
        <_>
          <internalNodes>
            0 -1 328 2120336919 -189483416 -1581721619 1575938180
            -55445814 -2072969896 -1912633363 -886659091</internalNodes>
          <leafValues>
            -2.3051151633262634e-01 4.7645783424377441e-01</leafValues></_>
        <_>
          <internalNodes>
            0 -1 632 351198879 1578053332 -391123633 1895964643
            -1675845025 -837517534 1303879516 -1163489427</internalNodes>
          <leafValues>
            -2.4176190793514252e-01 4.4035372138023376e-01</leafValues></_>
        <_>
          <internalNodes>
            0 -1 132 -1283395150 -2079768485 284008448 -1321040960
            1392591116 -1666217978 1628586025 113855017</internalNodes>
          <leafValues>
            -3.9688488841056824e-01 2.9010415077209473e-01</leafValues></_>
        <_>
          <internalNodes>
            0 -1 356 -981794148 1028199674 957431914 404160833
            1347354818 -2138305937 1083279501 2123891441</internalNodes>
          <leafValues>
            -4.1314932703971863e-01 2.6873353123664856e-01</leafValues></_>
        <_>
          <internalNodes>
            0 -1 34 1775732294 -1895394752 -2146957874 1577193530
            957036686 1476460608 -1686041917 -1636705643</internalNodes>
          <leafValues>
            -3.6530858278274536e-01 3.0347508192062378e-01</leafValues></_>
        <_>
          <internalNodes>
            0 -1 141 -1416408711 -201458803 -2082152909 527560639
            1744190952 1429202252 -1955502846 1374939082</internalNodes>
          <leafValues>
            -2.7559232711791992e-01 4.3183597922325134e-01</leafValues></_>
        <_>
          <internalNodes>
            0 -1 713 -1687642140 -264377691 1035917181 117804857
            2021538701 -278378235 -1931167953 -884690233</internalNodes>
          <leafValues>
            -2.7665293216705322e-01 4.1745457053184509e-01</leafValues></_>
        <_>
          <internalNodes>
            0 -1 517 1468500096 66265797 945426621 -1530445295
            -1440742002 -1016987642 -1782187483 523540540</internalNodes>
          <leafValues>
            -3.7057858705520630e-01 3.1506147980690002e-01</leafValues></_>
        <_>
          <internalNodes>
            0 -1 506 -777258336 1987408871 -163664271 -427852501
            -1623937110 -1409594695 2128052750 -316787416</internalNodes>
          <leafValues>
            -2.9342466592788696e-01 4.0533098578453064e-01</leafValues></_>
        <_>
          <internalNodes>
            0 -1 129 271705418 -611401797 -5759858 2124901390
            -1523228165 310276069 -715691960 -244742845</internalNodes>
          <leafValues>
            -2.8634667396545410e-01 4.1100403666496277e-01</leafValues></_></weakClassifiers></_>
    <!-- stage 14 -->
    <_>
      <maxWeakCount>20</maxWeakCount>
      <stageThreshold>-7.4496924877166748e-01</stageThreshold>
      <weakClassifiers>
        <_>
          <internalNodes>
            0 -1 523 1650526020 -2071900237 1967030067 788027125
            205790445 1365079860 221936272 979926353</internalNodes>
          <leafValues>
            -6.4220182597637177e-02 4.8993289470672607e-01</leafValues></_>
        <_>
          <internalNodes>
            0 -1 771 -547357913 526338574 -1258973639 1367014349
            -554736918 1738512416 -125308501 -72626514</internalNodes>
          <leafValues>
            -1.1878575384616852e-01 5.9258657693862915e-01</leafValues></_>
        <_>
          <internalNodes>
            0 -1 308 -112733445 1269645956 -771407336 -1312968873
            -1007170482 -1642959282 -103642181 -73762921</internalNodes>
          <leafValues>
            -1.5292923152446747e-01 5.2646023035049438e-01</leafValues></_>
        <_>
          <internalNodes>
            0 -1 616 135026012 -1013904104 944118023 193367067
            1571852457 -593950646 189282339 552695810</internalNodes>
          <leafValues>
            -3.5047665238380432e-01 2.5734409689903259e-01</leafValues></_>
        <_>
          <internalNodes>
            0 -1 557 -683593579 -767029582 2112843439 160415129
            -403910711 -2131951910 -1242024673 -1883834188</internalNodes>
          <leafValues>
            -2.5417166948318481e-01 3.8034760951995850e-01</leafValues></_>
        <_>
          <internalNodes>
            0 -1 720 -925121292 -1721923552 -855385658 -578809328
            -2004690161 599984646 118295339 311263234</internalNodes>
          <leafValues>
            -2.9556292295455933e-01 3.1371942162513733e-01</leafValues></_>
        <_>
          <internalNodes>
            0 -1 732 -64689826 1523887018 -1678078029 1837710970
            -50832094 -1275797571 -818576762 -1224942591</internalNodes>
          <leafValues>
            -2.7220076322555542e-01 3.6014148592948914e-01</leafValues></_>
        <_>
          <internalNodes>
            0 -1 528 -2138014524 1619057026 -997158546 -1840971711
            1502091032 -834131043 537487644 1528307712</internalNodes>
          <leafValues>
            -4.4519093632698059e-01 2.2966176271438599e-01</leafValues></_>
        <_>
          <internalNodes>
            0 -1 818 2109754510 1610711811 268447968 -1390501629
            1381966692 279155276 72577138 2028488925</internalNodes>
          <leafValues>
            -3.6658298969268799e-01 2.9142490029335022e-01</leafValues></_>
        <_>
          <internalNodes>
            0 -1 22 79889800 -976529390 -1072363739 -790090622
            -1608472184 -1575407093 -1324832186 1237436229</internalNodes>
          <leafValues>
            -4.1142266988754272e-01 2.5189203023910522e-01</leafValues></_>
        <_>
          <internalNodes>
            0 -1 323 1077066672 622813057 671127642 834667138 -196197262
            875102233 -175505203 348388888</internalNodes>
          <leafValues>
            -4.4114643335342407e-01 2.4036465585231781e-01</leafValues></_>
        <_>
          <internalNodes>
            0 -1 578 -988798293 975945399 805191987 -2085673089
            1203344958 -1107640367 1261812983 -364227041</internalNodes>
          <leafValues>
            -2.5152939558029175e-01 4.1852509975433350e-01</leafValues></_>
        <_>
          <internalNodes>
            0 -1 199 -13512509 -1238663474 -2064050815 -2059997775
            327048390 1833522510 -674962337 -539566117</internalNodes>
          <leafValues>
            -2.0128928124904633e-01 5.4906558990478516e-01</leafValues></_>
        <_>
          <internalNodes>
            0 -1 509 -596784492 -1984458041 2144740231 -1244717458
            1418954974 1400721781 385109195 -92672530</internalNodes>
          <leafValues>
            -2.1614843606948853e-01 4.6994671225547791e-01</leafValues></_>
        <_>
          <internalNodes>
            0 -1 369 1709637158 -269910485 862184171 1972006185
            -1217160796 2135304713 -1548082889 -1545341889</internalNodes>
          <leafValues>
            -2.6730459928512573e-01 4.1501921415328979e-01</leafValues></_>
        <_>
          <internalNodes>
            0 -1 281 -1667657896 -1267794189 805301964 -1425698925
            -1083000913 -429639747 -715790455 -875084707</internalNodes>
          <leafValues>
            -2.9375380277633667e-01 3.7076765298843384e-01</leafValues></_>
        <_>
          <internalNodes>
            0 -1 465 3101443 1862542365 1207992960 -1324826603 50370724
            203047608 721667528 209468836</internalNodes>
          <leafValues>
            -4.7791001200675964e-01 2.5103774666786194e-01</leafValues></_>
        <_>
          <internalNodes>
            0 -1 228 -1312734932 -18186106 -1744693223 72406042
            -1853776128 -869547958 -1927863927 202145810</internalNodes>
          <leafValues>
            -3.9444673061370850e-01 2.9866808652877808e-01</leafValues></_>
        <_>
          <internalNodes>
            0 -1 253 -1375869357 -1091674243 -322962159 -1901631700
            -147051782 1702031336 1588880570 -1750954397</internalNodes>
          <leafValues>
            -2.6606976985931396e-01 4.4999727606773376e-01</leafValues></_>
        <_>
          <internalNodes>
            0 -1 668 20163192 1629323784 994087285 1677916218 2088796201
            1946304777 -1987401586 369906177</internalNodes>
          <leafValues>
            -4.1543376445770264e-01 2.9305323958396912e-01</leafValues></_></weakClassifiers></_>
    <!-- stage 15 -->
    <_>
      <maxWeakCount>20</maxWeakCount>
      <stageThreshold>-6.2019282579421997e-01</stageThreshold>
      <weakClassifiers>
        <_>
          <internalNodes>
            0 -1 309 539494400 -1073872962 -369328260 111959410
            738989161 2088040431 1845435420 944505188</internalNodes>
          <leafValues>
            -2.6190477609634399e-01 4.4298246502876282e-01</leafValues></_>
        <_>
          <internalNodes>
            0 -1 688 -1815538689 -101752912 871339807 -547361849
            -211960853 -1619265667 -973258627 -8778728</internalNodes>
          <leafValues>
            -1.2375193834304810e-01 5.8277368545532227e-01</leafValues></_>
        <_>
          <internalNodes>
            0 -1 467 -1246560591 -178159631 1843942617 918513263
            -617547543 -1936392167 -1405550243 -611653217</internalNodes>
          <leafValues>
            -1.5326660871505737e-01 5.3395026922225952e-01</leafValues></_>
        <_>
          <internalNodes>
            0 -1 676 -1666935792 -1718419443 607377601 -1136697277
            319142630 -485851101 -1708607073 1135296619</internalNodes>
          <leafValues>
            -3.0572897195816040e-01 3.0181297659873962e-01</leafValues></_>
        <_>
          <internalNodes>
            0 -1 322 325809781 124775719 262667263 -975795035
            -1364129957 -1363329153 389868725 1783397504</internalNodes>
          <leafValues>
            -2.7833235263824463e-01 3.2565763592720032e-01</leafValues></_>
        <_>
          <internalNodes>
            0 -1 586 -806028035 -2636604 -285590081 501485403 -608656644
            -40050821 -1533944646 -36796305</internalNodes>
          <leafValues>
            -2.0080208778381348e-01 5.2269291877746582e-01</leafValues></_>
        <_>
          <internalNodes>
            0 -1 741 -575449897 1599203246 -269915352 -150747169
            -1258436402 -1804742835 1549268523 -1658128730</internalNodes>
          <leafValues>
            -1.7733758687973022e-01 5.1634591817855835e-01</leafValues></_>
        <_>
          <internalNodes>
            0 -1 269 -1558431844 -398339883 -1853303746 1883455705
            -509992536 -2111438463 -2080117863 -721533740</internalNodes>
          <leafValues>
            -3.4022307395935059e-01 2.9733359813690186e-01</leafValues></_>
        <_>
          <internalNodes>
            0 -1 599 -707717801 -1324352352 408246659 -8790399
            -1243252533 -1139541350 1036247019 -1075324813</internalNodes>
          <leafValues>
            -1.8288627266883850e-01 5.5252808332443237e-01</leafValues></_>
        <_>
          <internalNodes>
            0 -1 128 789566964 -56381849 -956354451 -214567761
            -542826674 1872461406 -355050166 -206577797</internalNodes>
          <leafValues>
            -1.9072708487510681e-01 4.9225351214408875e-01</leafValues></_>
        <_>
          <internalNodes>
            0 -1 308 -611845504 1453350984 -803911229 -1487986624
            1350656616 -686102494 -385350526 1939380886</internalNodes>
          <leafValues>
            -3.5030966997146606e-01 2.9594379663467407e-01</leafValues></_>
        <_>
          <internalNodes>
            0 -1 151 -215356016 -488303981 319292371 220790816
            -1844932446 -1433812223 1350822027 676617609</internalNodes>
          <leafValues>
            -3.4893751144409180e-01 3.0277273058891296e-01</leafValues></_>
        <_>
          <internalNodes>
            0 -1 202 -608757658 2102115965 -537008585 1477791367
            1293209421 -1685070219 -1938432787 2077606480</internalNodes>
          <leafValues>
            -3.0448430776596069e-01 3.6476626992225647e-01</leafValues></_>
        <_>
          <internalNodes>
            0 -1 334 -1861899 -571968902 -39327821 -437060053 2088308702
            -1386776586 793761755 -874529533</internalNodes>
          <leafValues>
            -1.6209831833839417e-01 6.4070850610733032e-01</leafValues></_>
        <_>
          <internalNodes>
            0 -1 554 -1442314217 209764613 1628504267 692371826
            1722986953 84385793 -1823907683 -1062581760</internalNodes>
          <leafValues>
            -3.7397247552871704e-01 3.2461279630661011e-01</leafValues></_>
        <_>
          <internalNodes>
            0 -1 796 216425919 2004643181 2147398638 -1981972803
            2147253759 -503509318 247346794 -493816857</internalNodes>
          <leafValues>
            -2.6957634091377258e-01 4.3169108033180237e-01</leafValues></_>
        <_>
          <internalNodes>
            0 -1 460 774939632 -1178980706 671060059 -1107992741
            872848100 -1397332312 -1249330533 -59038954</internalNodes>
          <leafValues>
            -2.7463880181312561e-01 4.1536948084831238e-01</leafValues></_>
        <_>
          <internalNodes>
            0 -1 807 1304256122 1497173550 -1547734167 -1846874148
            -1493369211 1435199267 -1151940149 -1023910418</internalNodes>
          <leafValues>
            -2.5896683335304260e-01 4.3005794286727905e-01</leafValues></_>
        <_>
          <internalNodes>
            0 -1 349 -1055188888 -37388159 -854359574 -637462403
            -2053082494 627671040 1350679444 1953760753</internalNodes>
          <leafValues>
            -4.3109291791915894e-01 2.7165463566780090e-01</leafValues></_>
        <_>
          <internalNodes>
            0 -1 500 -5081127 1587314595 -67132995 1965846527 1643413015
            -922383052 752862275 -1584667507</internalNodes>
          <leafValues>
            -2.4615363776683807e-01 4.7216829657554626e-01</leafValues></_></weakClassifiers></_>
    <!-- stage 16 -->
    <_>
      <maxWeakCount>21</maxWeakCount>
      <stageThreshold>-6.0934007167816162e-01</stageThreshold>
      <weakClassifiers>
        <_>
          <internalNodes>
            0 -1 215 -448420818 786870144 729636907 137330283 289760628
            1381687124 1147950926 1984315910</internalNodes>
          <leafValues>
            -1.2264151126146317e-01 4.7383719682693481e-01</leafValues></_>
        <_>
          <internalNodes>
            0 -1 570 -1069538575 -213960403 -830511999 -1472508004
            549079727 -1887470337 730878851 -1101263442</internalNodes>
          <leafValues>
            -2.0762160420417786e-01 3.8153776526451111e-01</leafValues></_>
        <_>
          <internalNodes>
            0 -1 588 -37498450 -1627926336 -639622209 -1217962048
            -2084207321 -116412928 -1291651857 -1756632437</internalNodes>
          <leafValues>
            -1.6827140748500824e-01 4.8997741937637329e-01</leafValues></_>
        <_>
          <internalNodes>
            0 -1 120 -270032949 -2052997250 -50554967 -202980685
            -690665733 -57187202 -1133146290 -555880525</internalNodes>
          <leafValues>
            -1.8847818672657013e-01 5.3869479894638062e-01</leafValues></_>
        <_>
          <internalNodes>
            0 -1 537 -1107829193 -1145472909 750153663 -312155472
            1718416601 -86352148 -530795849 -1613245329</internalNodes>
          <leafValues>
            -1.8043483793735504e-01 4.9468177556991577e-01</leafValues></_>
        <_>
          <internalNodes>
            0 -1 771 -575825719 1882823436 888510125 1947237275
            2145592318 226326795 1085113007 -101194001</internalNodes>
          <leafValues>
            -1.8670248985290527e-01 4.8077425360679626e-01</leafValues></_>
        <_>
          <internalNodes>
            0 -1 381 1343623504 -514682505 1107562810 -1873823418
            -250970106 -1696563165 -1763431824 561145360</internalNodes>
          <leafValues>
            -4.3175777792930603e-01 2.2660669684410095e-01</leafValues></_>
        <_>
          <internalNodes>
            0 -1 704 -1984393798 1933312260 -1455090381 1764261891
            268814863 1493409818 -1063009298 1294096689</internalNodes>
          <leafValues>
            -3.6578351259231567e-01 2.7205502986907959e-01</leafValues></_>
        <_>
          <internalNodes>
            0 -1 71 2077491063 -1925447689 1065848490 -1651954137
            -117264 1320287711 -2022629411 -690597150</internalNodes>
          <leafValues>
            -2.3235076665878296e-01 4.3159687519073486e-01</leafValues></_>
        <_>
          <internalNodes>
            0 -1 758 846142186 1941261937 -1499308719 922533487
            -1988856155 -102631939 2136878825 1812459334</internalNodes>
          <leafValues>
            -2.9335087537765503e-01 3.4482493996620178e-01</leafValues></_>
        <_>
          <internalNodes>
            0 -1 397 -1852761764 -2071379417 1084888193 1536430277
            439607963 -267812468 25378842 1519846723</internalNodes>
          <leafValues>
            -3.2210746407508850e-01 3.1742063164710999e-01</leafValues></_>
        <_>
          <internalNodes>
            0 -1 296 2109416503 -1828256235 21076634 1349222482
            2013906652 -1970783990 1681052225 1864985231</internalNodes>
          <leafValues>
            -3.2982629537582397e-01 3.1532678008079529e-01</leafValues></_>
        <_>
          <internalNodes>
            0 -1 620 836111217 839319634 1497458948 1075029531 998249155
            -794588775 -2106654334 771516760</internalNodes>
          <leafValues>
            -3.7073895335197449e-01 2.9302248358726501e-01</leafValues></_>
        <_>
          <internalNodes>
            0 -1 722 -730745898 2110497767 2051290759 962554992
            258909942 -891146604 1557782271 -3433265</internalNodes>
          <leafValues>
            -2.0636852085590363e-01 5.4287034273147583e-01</leafValues></_>
        <_>
          <internalNodes>
            0 -1 714 809009240 1574034850 809413491 1704878052
            1471534494 1559542719 1565693854 642979835</internalNodes>
          <leafValues>
            -3.2831603288650513e-01 3.4310248494148254e-01</leafValues></_>
        <_>
          <internalNodes>
            0 -1 104 2100250323 2124545910 -209983801 2125188781
            -1501815767 -1662683193 -327865218 -1299419769</internalNodes>
          <leafValues>
            -2.5305724143981934e-01 4.3775719404220581e-01</leafValues></_>
        <_>
          <internalNodes>
            0 -1 664 -693115597 1907227183 -146186 -1321488793
            2101225839 1023156210 -940973372 -1016087198</internalNodes>
          <leafValues>
            -2.3335593938827515e-01 4.8697921633720398e-01</leafValues></_>
        <_>
          <internalNodes>
            0 -1 736 1315711126 297059145 -1069414256 1566867592
            -1560135090 558514251 -1061009165 556044046</internalNodes>
          <leafValues>
            -4.4564521312713623e-01 2.6225763559341431e-01</leafValues></_>
        <_>
          <internalNodes>
            0 -1 589 2044126655 -2028885000 -269665429 1291941633
            -159783682 -599332244 -90538021 -874542673</internalNodes>
          <leafValues>
            -1.8958403170108795e-01 5.8906286954879761e-01</leafValues></_>
        <_>
          <internalNodes>
            0 -1 461 867373297 -127468546 771514296 -1114997327
            -541139288 1928099751 1882783677 -1110958748</internalNodes>
          <leafValues>
            -2.4268351495265961e-01 4.5906642079353333e-01</leafValues></_>
        <_>
          <internalNodes>
            0 -1 78 580940048 222552194 276859337 -1764736726
            -1861847702 -1743781872 -1600953375 269765277</internalNodes>
          <leafValues>
            -5.0518637895584106e-01 2.2929258644580841e-01</leafValues></_></weakClassifiers></_>
    <!-- stage 17 -->
    <_>
      <maxWeakCount>18</maxWeakCount>
      <stageThreshold>-7.2231298685073853e-01</stageThreshold>
      <weakClassifiers>
        <_>
          <internalNodes>
            0 -1 835 537134408 655625989 -1585381056 67109268 1744841280
            105027425 541083664 3153988</internalNodes>
          <leafValues>
            -4.9803921580314636e-01 4.2004090547561646e-01</leafValues></_>
        <_>
          <internalNodes>
            0 -1 613 1163965652 -1048060799 1311681655 -737785897
            -1910821662 -195494085 374397767 984497324</internalNodes>
          <leafValues>
            -2.6120862364768982e-01 3.5998907685279846e-01</leafValues></_>
        <_>
          <internalNodes>
            0 -1 501 1820598777 144246037 956760177 -1475378175
            -58700692 -720603877 1233259807 17568005</internalNodes>
          <leafValues>
            -4.4418838620185852e-01 1.7908833920955658e-01</leafValues></_>
        <_>
          <internalNodes>
            0 -1 321 675615041 1803977275 16963053 570327045 -819338260
            -1639333189 -1525087680 801395008</internalNodes>
          <leafValues>
            -3.5899519920349121e-01 2.4406594038009644e-01</leafValues></_>
        <_>
          <internalNodes>
            0 -1 420 251996225 1580580995 587564491 143659930 310936805
            -1326801219 520482851 -364811713</internalNodes>
          <leafValues>
            -2.8093433380126953e-01 3.2353577017784119e-01</leafValues></_>
        <_>
          <internalNodes>
            0 -1 533 -1877811524 53920088 -448102055 -419379806
            852164238 -92225309 432382665 1664032205</internalNodes>
          <leafValues>
            -3.4810483455657959e-01 2.8316307067871094e-01</leafValues></_>
        <_>
          <internalNodes>
            0 -1 315 631651892 -1787817543 -536800407 613634329
            193826032 -1028095476 1233602805 1181875648</internalNodes>
          <leafValues>
            -3.8125982880592346e-01 2.7008399367332458e-01</leafValues></_>
        <_>
          <internalNodes>
            0 -1 750 -769258427 -984323163 1958709710 -1140593121
            -1262205350 -811532889 -998332770 -1965033538</internalNodes>
          <leafValues>
            -2.9158309102058411e-01 3.7559795379638672e-01</leafValues></_>
        <_>
          <internalNodes>
            0 -1 511 1389979271 -2129445423 1672396511 216919100
            805080574 1383250939 2121661366 -2118574272</internalNodes>
          <leafValues>
            -2.7976262569427490e-01 3.7698215246200562e-01</leafValues></_>
        <_>
          <internalNodes>
            0 -1 220 -607790892 626656333 -1475280823 1546117228
            2073035404 1930480320 1258713235 30220705</internalNodes>
          <leafValues>
            -3.7678542733192444e-01 2.8852048516273499e-01</leafValues></_>
        <_>
          <internalNodes>
            0 -1 225 -1653394825 -398392836 117506563 -563281902
            -1056776188 1125851202 948087694 -2053621790</internalNodes>
          <leafValues>
            -3.2182249426841736e-01 3.5595476627349854e-01</leafValues></_>
        <_>
          <internalNodes>
            0 -1 445 2088369676 2052697063 -1494921369 871362408
            -1394813032 -852623563 -1240391575 -1077955276</internalNodes>
          <leafValues>
            -2.6752087473869324e-01 4.1014233231544495e-01</leafValues></_>
        <_>
          <internalNodes>
            0 -1 117 55719189 1278618 -2130213868 -1964244968 530520379
            -1975072744 -1148440416 616608320</internalNodes>
          <leafValues>
            -5.0120759010314941e-01 2.2550582885742188e-01</leafValues></_>
        <_>
          <internalNodes>
            0 -1 639 -2000321489 280673456 1778382713 -1475822759
            1952345507 -547390377 -1207977989 548314811</internalNodes>
          <leafValues>
            -3.2790637016296387e-01 3.4675991535186768e-01</leafValues></_>
        <_>
          <internalNodes>
            0 -1 92 -55537703 779860130 1877699130 -1485215838
            -1369006651 -1097443668 842855053 -1903718631</internalNodes>
          <leafValues>
            -2.7206209301948547e-01 4.4355481863021851e-01</leafValues></_>
        <_>
          <internalNodes>
            0 -1 283 -1209034817 -1431653403 2078936689 2088189552
            -1177108723 787330774 1069039544 -1477358223</internalNodes>
          <leafValues>
            -2.6936411857604980e-01 4.3055716156959534e-01</leafValues></_>
        <_>
          <internalNodes>
            0 -1 325 -1625012683 244160348 135344557 1832386771
            1275329338 -900038528 1628293772 1211328205</internalNodes>
          <leafValues>
            -3.4771740436553955e-01 3.7868097424507141e-01</leafValues></_>
        <_>
          <internalNodes>
            0 -1 800 -52200297 163237422 -285407064 -1666552068
            651767260 -564171281 1520319892 -1656058525</internalNodes>
          <leafValues>
            -2.8745102882385254e-01 4.2665392160415649e-01</leafValues></_></weakClassifiers></_>
    <!-- stage 18 -->
    <_>
      <maxWeakCount>19</maxWeakCount>
      <stageThreshold>-7.4719232320785522e-01</stageThreshold>
      <weakClassifiers>
        <_>
          <internalNodes>
            0 -1 422 119612069 1060616 515849478 1905901250 1010636900
            1088423284 1815797179 430384438</internalNodes>
          <leafValues>
            -7.6923079788684845e-02 4.8851454257965088e-01</leafValues></_>
        <_>
          <internalNodes>
            0 -1 240 -114034577 -726296509 -1826282762 1408882381
            -814053446 -892429539 -488116554 -136058121</internalNodes>
          <leafValues>
            -9.8826587200164795e-02 6.3052022457122803e-01</leafValues></_>
        <_>
          <internalNodes>
            0 -1 722 2083973356 -1852415540 -129652090 -706892685
            -1093912968 -1692303706 1829924013 -1945519998</internalNodes>
          <leafValues>
            -2.5149020552635193e-01 3.1816688179969788e-01</leafValues></_>
        <_>
          <internalNodes>
            0 -1 186 -1322138009 1923870564 144949225 -1385617410
            414655101 2073128434 266278009 -362199173</internalNodes>
          <leafValues>
            -2.3554681241512299e-01 3.9164426922798157e-01</leafValues></_>
        <_>
          <internalNodes>
            0 -1 757 -965415538 1210893681 2057830329 -2068009464
            -159858693 -1107493123 -2137717711 -319034171</internalNodes>
          <leafValues>
            -2.7538073062896729e-01 3.3738934993743896e-01</leafValues></_>
        <_>
          <internalNodes>
            0 -1 407 -1848629696 1116520775 310575181 -1725055984
            -1139670300 185655936 -1307537387 1879064321</internalNodes>
          <leafValues>
            -4.8087018728256226e-01 1.8814638257026672e-01</leafValues></_>
        <_>
          <internalNodes>
            0 -1 659 278706376 -782777152 -1341958186 572169629
            -1999978460 -2088631904 -1985468609 -1927673333</internalNodes>
          <leafValues>
            -3.2383388280868530e-01 3.0885621905326843e-01</leafValues></_>
        <_>
          <internalNodes>
            0 -1 343 -1763970567 2045640642 -1150266254 1396172261
            -103295094 -812845822 -703551894 -769734753</internalNodes>
          <leafValues>
            -1.9744035601615906e-01 5.1070380210876465e-01</leafValues></_>
        <_>
          <internalNodes>
            0 -1 555 -1382858496 1080672576 -803159536 -1944022694
            -1476299740 853246090 1620836736 870275654</internalNodes>
          <leafValues>
            -4.8250231146812439e-01 2.3050485551357269e-01</leafValues></_>
        <_>
          <internalNodes>
            0 -1 99 1736431327 489208668 1014982073 -697866099 988935350
            -683790339 1551295743 -3184453</internalNodes>
          <leafValues>
            -1.9539849460124969e-01 5.8932662010192871e-01</leafValues></_>
        <_>
          <internalNodes>
            0 -1 448 -1065996553 1444544281 -1816244233 1470214080
            -1524973885 1768816629 -1103043254 -68778485</internalNodes>
          <leafValues>
            -1.9298009574413300e-01 4.8422586917877197e-01</leafValues></_>
        <_>
          <internalNodes>
            0 -1 652 -1861040247 1325629470 -2080272112 -1589643943
            1134304824 -1456684856 16867420 752482473</internalNodes>
          <leafValues>
            -3.3162146806716919e-01 3.2612708210945129e-01</leafValues></_>
        <_>
          <internalNodes>
            0 -1 158 -272846197 -1556721698 -268866375 988802734
            492797561 -622597 -193902872 -370808165</internalNodes>
          <leafValues>
            -2.7056720852851868e-01 4.0183699131011963e-01</leafValues></_>
        <_>
          <internalNodes>
            0 -1 317 1864160100 955948391 2146725333 -81316491
            2087736957 748945276 2046228477 -19091352</internalNodes>
          <leafValues>
            -2.8655606508255005e-01 3.6899250745773315e-01</leafValues></_>
        <_>
          <internalNodes>
            0 -1 577 -2143289212 1703888147 -1274331049 1723367694
            1746151710 2123269127 -829956012 1110192179</internalNodes>
          <leafValues>
            -4.3783050775527954e-01 2.6056504249572754e-01</leafValues></_>
        <_>
          <internalNodes>
            0 -1 551 -538408739 1937937400 2146983386 -1483753773
            678499250 -511377459 -160287489 -410271846</internalNodes>
          <leafValues>
            -2.2206142544746399e-01 5.3461766242980957e-01</leafValues></_>
        <_>
          <internalNodes>
            0 -1 630 -1494634529 1214852456 -1494296007 405719778
            -113301571 -1763823634 -26684276 -1645773738</internalNodes>
          <leafValues>
            -2.6830071210861206e-01 4.0860790014266968e-01</leafValues></_>
        <_>
          <internalNodes>
            0 -1 615 1994029011 2098724699 -1132714188 498548714
            503177147 -1384317187 -1627555041 -272138265</internalNodes>
          <leafValues>
            -1.9786401093006134e-01 5.7838606834411621e-01</leafValues></_>
        <_>
          <internalNodes>
            0 -1 804 -1008384864 -933359150 10036040 -1868475122
            -2096403710 1493279119 1329779592 1354419035</internalNodes>
          <leafValues>
            -3.7986180186271667e-01 3.0238869786262512e-01</leafValues></_></weakClassifiers></_>
    <!-- stage 19 -->
    <_>
      <maxWeakCount>18</maxWeakCount>
      <stageThreshold>-9.8653727769851685e-01</stageThreshold>
      <weakClassifiers>
        <_>
          <internalNodes>
            0 -1 653 832594000 -1761326076 1190157808 1490685590
            -1770949476 -465609251 317792000 67110660</internalNodes>
          <leafValues>
            -1.6849817335605621e-01 4.6053853631019592e-01</leafValues></_>
        <_>
          <internalNodes>
            0 -1 618 -1871306607 -206417294 -1712489339 930922107
            283976959 802904831 -1375935456 127277013</internalNodes>
          <leafValues>
            -2.5373050570487976e-01 3.1570774316787720e-01</leafValues></_>
        <_>
          <internalNodes>
            0 -1 45 1998505774 -321056685 -2109583269 -993198071
            -1472898873 971720725 -1727647661 -1699937918</internalNodes>
          <leafValues>
            -2.7062264084815979e-01 3.0254226922988892e-01</leafValues></_>
        <_>
          <internalNodes>
            0 -1 614 163125085 1894409686 -1814119997 1533460219
            -2036674642 -1996816495 1849638250 -1167413849</internalNodes>
          <leafValues>
            -1.9770298898220062e-01 4.3011936545372009e-01</leafValues></_>
        <_>
          <internalNodes>
            0 -1 259 -311456265 -818434753 1056464424 1857890798
            -976654595 -1510712073 901492589 620156028</internalNodes>
          <leafValues>
            -2.5290930271148682e-01 3.5165932774543762e-01</leafValues></_>
        <_>
          <internalNodes>
            0 -1 203 -292815890 -548171390 50383074 -1764818047
            -666158226 -485736111 2822656 1938284677</internalNodes>
          <leafValues>
            -2.8876531124114990e-01 3.2799559831619263e-01</leafValues></_>
        <_>
          <internalNodes>
            0 -1 278 327958400 1082312710 1209082049 1308761504
            -344389632 -1802993260 -1196203415 547375701</internalNodes>
          <leafValues>
            -4.9826031923294067e-01 1.9118310511112213e-01</leafValues></_>
        <_>
          <internalNodes>
            0 -1 708 -541813573 161774464 -74814731 1492329685
